Language model created by QuickLM on Tue May 31 07:04:18 EDT 2016
Copyright (c) 1996-2010 Carnegie Mellon University and Alexander I. Rudnicky

The model is in standard ARPA format, designed by Doug Paul while he was at MITRE.

The code that was used to produce this language model is available in Open Source.
Please visit http://www.speech.cs.cmu.edu/tools/ for more information

The (fixed) discount mass is 0.5. The backoffs are computed using the ratio method.
This model based on a corpus of 1 sentences and 40 words

\data\
ngram 1=40
ngram 2=39
ngram 3=38

\1-grams:
-1.9031 </s> -0.3010
-1.9031 <s> -0.2956
-1.9031 AIMP -0.2956
-1.9031 ALL -0.2956
-1.9031 BACK -0.2956
-1.9031 CHROME -0.2956
-1.9031 CLOSE -0.2956
-1.9031 COM -0.2956
-1.9031 COPY -0.2956
-1.9031 DECREASE -0.2956
-1.9031 DOT -0.2956
-1.9031 FACEBOOK -0.2956
-1.9031 FIREFOX -0.2956
-1.9031 GOOGLE -0.2956
-1.9031 INCOGNITO -0.2956
-1.9031 INCREASE -0.2956
-1.9031 MAXIMIZE -0.2956
-1.9031 MINIMIZE -0.2956
-1.9031 MODE -0.2956
-1.9031 MUSIC -0.2956
-1.9031 MUTE -0.2956
-1.9031 NEW -0.2956
-1.9031 NINE -0.2956
-1.9031 OPEN -0.2956
-1.9031 PASTE -0.2956
-1.9031 PLAY -0.2956
-1.9031 PYTHON -0.2956
-1.9031 RETURN -0.2956
-1.9031 SELECT -0.2956
-1.9031 SELECTED -0.2956
-1.9031 SHIFT -0.2956
-1.9031 STOP -0.2956
-1.9031 SWITCH -0.2956
-1.9031 TAB -0.2956
-1.9031 TASKMENEGER -0.2956
-1.9031 UTORRENT -0.2956
-1.9031 VOLUME -0.2956
-1.9031 WINDOW -0.2956
-1.9031 WINDOWS -0.2956
-1.9031 YOUTUBE -0.2956

\2-grams:
-0.3010 <s> OPEN 0.0000
-0.3010 AIMP YOUTUBE 0.0000
-0.3010 ALL COPY 0.0000
-0.3010 BACK PYTHON 0.0000
-0.3010 CHROME FIREFOX 0.0000
-0.3010 CLOSE GOOGLE 0.0000
-0.3010 COM STOP 0.0000
-0.3010 COPY PASTE 0.0000
-0.3010 DECREASE VOLUME 0.0000
-0.3010 DOT COM 0.0000
-0.3010 FACEBOOK </s> -0.3010
-0.3010 FIREFOX AIMP 0.0000
-0.3010 GOOGLE CHROME 0.0000
-0.3010 INCOGNITO MODE 0.0000
-0.3010 INCREASE DECREASE 0.0000
-0.3010 MAXIMIZE MINIMIZE 0.0000
-0.3010 MINIMIZE WINDOWS 0.0000
-0.3010 MODE INCREASE 0.0000
-0.3010 MUSIC MUTE 0.0000
-0.3010 MUTE SELECT 0.0000
-0.3010 NEW TAB 0.0000
-0.3010 NINE DOT 0.0000
-0.3010 OPEN CLOSE 0.0000
-0.3010 PASTE SELECTED 0.0000
-0.3010 PLAY MUSIC 0.0000
-0.3010 PYTHON MAXIMIZE 0.0000
-0.3010 RETURN SWITCH 0.0000
-0.3010 SELECT ALL 0.0000
-0.3010 SELECTED TASKMENEGER 0.0000
-0.3010 SHIFT NEW 0.0000
-0.3010 STOP BACK 0.0000
-0.3010 SWITCH SHIFT 0.0000
-0.3010 TAB INCOGNITO 0.0000
-0.3010 TASKMENEGER FACEBOOK 0.0000
-0.3010 UTORRENT NINE 0.0000
-0.3010 VOLUME PLAY 0.0000
-0.3010 WINDOW RETURN 0.0000
-0.3010 WINDOWS WINDOW 0.0000
-0.3010 YOUTUBE UTORRENT 0.0000

\3-grams:
-0.3010 <s> OPEN CLOSE
-0.3010 AIMP YOUTUBE UTORRENT
-0.3010 ALL COPY PASTE
-0.3010 BACK PYTHON MAXIMIZE
-0.3010 CHROME FIREFOX AIMP
-0.3010 CLOSE GOOGLE CHROME
-0.3010 COM STOP BACK
-0.3010 COPY PASTE SELECTED
-0.3010 DECREASE VOLUME PLAY
-0.3010 DOT COM STOP
-0.3010 FIREFOX AIMP YOUTUBE
-0.3010 GOOGLE CHROME FIREFOX
-0.3010 INCOGNITO MODE INCREASE
-0.3010 INCREASE DECREASE VOLUME
-0.3010 MAXIMIZE MINIMIZE WINDOWS
-0.3010 MINIMIZE WINDOWS WINDOW
-0.3010 MODE INCREASE DECREASE
-0.3010 MUSIC MUTE SELECT
-0.3010 MUTE SELECT ALL
-0.3010 NEW TAB INCOGNITO
-0.3010 NINE DOT COM
-0.3010 OPEN CLOSE GOOGLE
-0.3010 PASTE SELECTED TASKMENEGER
-0.3010 PLAY MUSIC MUTE
-0.3010 PYTHON MAXIMIZE MINIMIZE
-0.3010 RETURN SWITCH SHIFT
-0.3010 SELECT ALL COPY
-0.3010 SELECTED TASKMENEGER FACEBOOK
-0.3010 SHIFT NEW TAB
-0.3010 STOP BACK PYTHON
-0.3010 SWITCH SHIFT NEW
-0.3010 TAB INCOGNITO MODE
-0.3010 TASKMENEGER FACEBOOK </s>
-0.3010 UTORRENT NINE DOT
-0.3010 VOLUME PLAY MUSIC
-0.3010 WINDOW RETURN SWITCH
-0.3010 WINDOWS WINDOW RETURN
-0.3010 YOUTUBE UTORRENT NINE

\end\
